booster[0]:
0:[f10<1.5] yes=1,no=2,missing=1
	1:[f0<1.5] yes=3,no=4,missing=3
		3:[f6<30.5] yes=7,no=8,missing=7
			7:[f2<2.5] yes=13,no=14,missing=13
				13:leaf=-0.120000005
				14:leaf=-0.347368419
			8:leaf=0.300000012
		4:leaf=-0.461946934
	2:[f0<2.5] yes=5,no=6,missing=5
		5:[f10<4.5] yes=9,no=10,missing=9
			9:leaf=0.509433985
			10:[f6<28.5] yes=15,no=16,missing=15
				15:leaf=-0.300000012
				16:leaf=0.100000009
		6:[f5<0.5] yes=11,no=12,missing=11
			11:[f4<2.5] yes=17,no=18,missing=17
				17:leaf=-0.0428571478
				18:leaf=-0.347368419
			12:[f6<21.5] yes=19,no=20,missing=19
				19:leaf=0.0461538509
				20:leaf=0.310344815
booster[1]:
0:[f1<0.5] yes=1,no=2,missing=1
	1:[f7<0.5] yes=3,no=4,missing=3
		3:leaf=-0.341451615
		4:[f5<0.5] yes=7,no=8,missing=7
			7:leaf=-0.0484262407
			8:leaf=0.115804918
	2:[f0<2.5] yes=5,no=6,missing=5
		5:leaf=0.383600324
		6:[f8<4.5] yes=9,no=10,missing=9
			9:[f5<1.5] yes=13,no=14,missing=13
				13:leaf=0.0369925015
				14:leaf=0.249017954
			10:leaf=-0.370078415
booster[2]:
0:[f10<1.5] yes=1,no=2,missing=1
	1:[f7<0.5] yes=3,no=4,missing=3
		3:leaf=-0.280202746
		4:[f6<27.5] yes=7,no=8,missing=7
			7:leaf=-0.088617906
			8:leaf=0.113379113
	2:[f8<4.5] yes=5,no=6,missing=5
		5:[f10<4.5] yes=9,no=10,missing=9
			9:[f0<2.5] yes=15,no=16,missing=15
				15:leaf=0.309145302
				16:leaf=0.0944718346
			10:leaf=-0.0514777713
		6:leaf=-0.174564674
booster[3]:
0:[f1<0.5] yes=1,no=2,missing=1
	1:[f6<27.5] yes=3,no=4,missing=3
		3:[f6<20.5] yes=7,no=8,missing=7
			7:leaf=-0.285079539
			8:[f6<24.5] yes=15,no=16,missing=15
				15:leaf=-0.0848453119
				16:leaf=-0.219985962
		4:[f0<1.5] yes=9,no=10,missing=9
			9:leaf=0.176918462
			10:[f2<0.5] yes=19,no=20,missing=19
				19:leaf=0.128441453
				20:leaf=-0.227024302
	2:[f0<2.5] yes=5,no=6,missing=5
		5:leaf=0.273343831
		6:[f8<4.5] yes=13,no=14,missing=13
			13:leaf=0.00601744559
			14:leaf=-0.204303429
booster[4]:
0:[f10<1.5] yes=1,no=2,missing=1
	1:[f6<33.5] yes=3,no=4,missing=3
		3:[f4<0.5] yes=7,no=8,missing=7
			7:[f6<22.5] yes=13,no=14,missing=13
				13:leaf=-0.351789653
				14:leaf=-0.148461908
			8:leaf=-0.168917239
		4:leaf=0.0457356349
	2:[f5<0.5] yes=5,no=6,missing=5
		5:[f10<2.5] yes=9,no=10,missing=9
			9:[f6<25.5] yes=17,no=18,missing=17
				17:leaf=0.109138429
				18:leaf=-0.0920048505
			10:[f10<4.5] yes=19,no=20,missing=19
				19:leaf=0.12215022
				20:leaf=-0.106096484
		6:leaf=0.229450509
booster[5]:
0:[f7<0.5] yes=1,no=2,missing=1
	1:[f1<0.5] yes=3,no=4,missing=3
		3:[f6<32.5] yes=7,no=8,missing=7
			7:leaf=-0.186036587
			8:leaf=0.150446355
		4:[f2<1.5] yes=9,no=10,missing=9
			9:[f4<0.5] yes=15,no=16,missing=15
				15:leaf=0.105734982
				16:leaf=-0.120787144
			10:[f6<30] yes=17,no=18,missing=17
				17:leaf=0.271745503
				18:leaf=-0.00675649056
	2:[f4<1.5] yes=5,no=6,missing=5
		5:leaf=-0.0922618434
		6:[f1<0.5] yes=11,no=12,missing=11
			11:[f4<2.5] yes=19,no=20,missing=19
				19:leaf=0.233431056
				20:leaf=0.0481558703
			12:leaf=0.294100255
booster[6]:
0:[f0<2.5] yes=1,no=2,missing=1
	1:[f1<0.5] yes=3,no=4,missing=3
		3:[f7<0.5] yes=7,no=8,missing=7
			7:leaf=-0.0761904866
			8:leaf=0.0400826186
		4:[f4<2.5] yes=9,no=10,missing=9
			9:[f6<37.5] yes=17,no=18,missing=17
				17:leaf=0.21147272
				18:leaf=-0.0490011983
			10:leaf=0.268618464
	2:[f8<4.5] yes=5,no=6,missing=5
		5:[f8<1.5] yes=11,no=12,missing=11
			11:[f6<22.5] yes=19,no=20,missing=19
				19:leaf=-0.241270453
				20:leaf=-0.0414649025
			12:[f6<44.5] yes=21,no=22,missing=21
				21:leaf=0.0856717452
				22:leaf=-0.0851757154
		6:leaf=-0.281808794
booster[7]:
0:[f10<1.5] yes=1,no=2,missing=1
	1:[f0<1.5] yes=3,no=4,missing=3
		3:[f2<2.5] yes=7,no=8,missing=7
			7:[f6<23.5] yes=15,no=16,missing=15
				15:leaf=-0.0399408303
				16:leaf=0.230109498
			8:leaf=-0.122910045
		4:[f6<28.5] yes=9,no=10,missing=9
			9:leaf=-0.105365381
			10:leaf=-0.312814415
	2:[f6<28.5] yes=5,no=6,missing=5
		5:[f1<0.5] yes=11,no=12,missing=11
			11:leaf=-0.159248412
			12:leaf=0.0330660939
		6:[f0<2.5] yes=13,no=14,missing=13
			13:leaf=0.261408657
			14:[f2<1.5] yes=23,no=24,missing=23
				23:leaf=0.11085777
				24:leaf=-0.0889489725
booster[8]:
0:[f7<0.5] yes=1,no=2,missing=1
	1:[f6<48] yes=3,no=4,missing=3
		3:[f5<0.5] yes=7,no=8,missing=7
			7:[f0<2.5] yes=11,no=12,missing=11
				11:leaf=-0.0354694091
				12:leaf=-0.161891073
			8:[f6<23.5] yes=13,no=14,missing=13
				13:leaf=-0.1269629
				14:leaf=0.133720443
		4:leaf=0.192945629
	2:[f6<22.5] yes=5,no=6,missing=5
		5:leaf=0.249502555
		6:[f6<30.5] yes=9,no=10,missing=9
			9:[f2<2.5] yes=15,no=16,missing=15
				15:leaf=0.024656238
				16:leaf=-0.172848344
			10:leaf=0.136693388
booster[9]:
0:[f0<2.5] yes=1,no=2,missing=1
	1:[f10<1.5] yes=3,no=4,missing=3
		3:[f4<1.5] yes=7,no=8,missing=7
			7:leaf=0.128008515
			8:[f0<1.5] yes=13,no=14,missing=13
				13:leaf=-0.0106283575
				14:leaf=-0.249950394
		4:[f10<4.5] yes=9,no=10,missing=9
			9:leaf=0.168634668
			10:leaf=-0.0902219117
	2:[f7<0.5] yes=5,no=6,missing=5
		5:[f6<36.5] yes=11,no=12,missing=11
			11:[f4<1.5] yes=17,no=18,missing=17
				17:leaf=-0.0546109788
				18:leaf=-0.241598397
			12:leaf=0.0569487847
		6:leaf=0.112035409
